{"algorithm": ["Backpropagation Neural Network"], "weights_ih": [[[0.7694099304795523, 0.2724373747802028, 0.23836230606711686, 1.5982486957686015, 0.3126525606394903, -0.3287867281475735, -0.8276689254985382, 0.11183432841220962], [1.0885803872166173, 0.1947779881703362, 0.22439238522085903, 2.51299981725923, -0.32747726217382606, 0.19035816371282369, -1.4446507329903857, 0.3455245991164483], [-1.0996875889948543, 0.14956364124935445, -1.0018459863557088, -2.0502591462546276, 1.5478098483928402, -0.7416196974744435, 1.5801834956699616, 0.7410024480778576], [0.21655006522262463, 0.3188193571467842, -0.051864430803606226, 0.23924429362832872, 0.838492885924508, 0.3136564211425296, 0.06104474865264197, 0.12932010480572992], [0.640231045163178, 0.10449039837432715, 0.1968174682984174, 0.2133265666189274, -0.020241654198484293, 0.639048987923535, 0.02279787895527374, 0.23613426012334748], [0.18536809164772333, 0.9172995290622027, 0.45842849960345333, -0.23528132742546543, 0.9337847413937106, 0.5922441461681127, 0.6683173312768093, 0.25277223746081207], [0.9894455903464706, 0.43302635989502297, 0.05220872125103834, 0.6296507535907789, 0.5419601109798927, 0.6590557587271333, 0.2403948926230044, 0.6197031345657887], [0.9102897540361227, 0.4075706926571666, 0.4705897155172149, 0.6550548683190873, 0.5780679348884451, 0.6510522339184603, 0.644795078641568, 0.4377260467888956]]], "weights_ho": [[[0.6268319209971615], [0.02611490107471205], [0.3360582755753216], [1.4961870993367765], [-0.9969486717582251], [0.20910076591047042], [-1.1935273846591898], [-0.11293239918706366]]], "bias_h": [[[-0.9636802999034972, -1.0113792146970817, -1.106621188167268, -1.136445494981104, 1.391192182615459, -0.9231458662354944, 1.0773593037403892, -0.11771947008468864]]], "bias_o": [[[-0.7093433261573918]]], "accuracy": [0.8783004540929508], "loss": [0.12169954590704919]}