{"algorithm": ["Backpropagation Neural Network"], "weights_ih": [[[0.19774968902656637, 0.7954918238246999, -3.187521748920275, -0.9171292441442248, -0.08686721137602205, 0.33394609376366474, -0.13060913497809812, 2.611229548874509], [0.4808437390551265, 0.4110698772648192, -2.9808297813898563, 0.31517447444058205, 0.12926740590759567, 0.03688659990422956, 0.004715814234558708, 3.1466417243357796], [1.7425396692072361, -1.0985204342828037, 2.0297671711271903, 1.4450970921110504, 1.6933495532873888, 1.4806591630350376, 1.3817962522704046, -1.5179062875602833], [0.6043053831924313, 0.29585286498316926, 0.8669595097333341, -0.25304507205074084, 0.02276005154236435, 1.24296519700148, 0.4183180488628617, 0.31857220619577703], [0.5459343630597445, -0.2577500768601515, -0.5613001950659557, 0.6451984586683175, 0.0706380229746171, 0.42051173343879267, 0.6068065309965938, 0.9643909514581311], [1.1416761551031445, -0.4607947845754836, 4.150196435152862, 1.0101231177105905, 0.8212417146764928, 0.694569623908831, 1.4513794442062462, -2.500308634836307], [0.8949735146317528, 0.2168723518839103, 1.1592947219008956, 0.34603765749347376, 0.0773685481435768, 0.03896648576696138, 0.0909540769267545, -0.18070184655350377], [0.5540624808913464, 0.004101874917047434, 1.0281321706220072, 0.825119005881017, 0.2589535391115392, 0.3961105716491092, 0.9678203189778498, -0.15856071514329192]]], "weights_ho": [[[-0.5106190085347244], [0.29570636283264096], [-1.567666993072225], [-0.539900651096268], [-0.3966934736044757], [-0.5657361401280482], [-0.36031207246395414], [1.0869428945844946]]], "bias_h": [[[1.327322641437811, -1.1867302370475898, 0.5520782516490055, 1.0957019226634312, 1.261121004238866, 1.8122724342790677, 0.780221050446418, -1.1692568121286688]]], "bias_o": [[[-0.31248898179839757]]], "accuracy": [0.9524596915292342], "loss": [0.047540308470765825]}