{"weights_ih": [[[0.38466407594571134, 0.9000806753848056, 0.40601390927422054, 0.30018477191037213, 0.5528420568694411, 0.3178351999670459, 0.5905546781759788, -0.12705900535900122, 0.47256036606123647, 0.1251576022584184], [0.1943324664579929, 0.5495811444302101, 0.4062408517192496, 0.45422599753726883, -0.018760338482493324, 0.5713301087118468, -0.023003252095560037, 0.1264287041577972, -0.15747198856599148, -0.3615403517894578], [0.7873101961350195, 0.5313156928015498, 0.5028635540855193, 0.5720533873275353, 0.3551990248139162, -0.6080992115635792, 0.04556952910038705, 0.5944456866788641, 0.908980515590905, -0.48380447725337217], [0.7399124194900302, 0.6537293990172566, -0.06230594110094115, 0.5313248890442269, 0.2990272104391351, 0.19005651541322047, 0.5520297919519952, -0.025239735012680328, 0.6564792035170574, 0.08954887868746267], [0.5947162030315318, 0.08469997147938889, 0.8743308724248217, 0.6246813099858777, -0.03797311336093306, 0.4349817992197175, 0.09675912798143817, 0.16431910523993162, 0.6193797481485366, -0.06734533781427098], [0.15158619875681034, 0.3702646899521909, 0.24580940042661453, 0.70237709131219, 0.753181735198883, 0.8910975287662313, 0.20669520295739685, 0.2585938049176039, 0.055418347585850666, 0.6874866562323132], [0.3068449380806798, 0.37067409689987335, 0.5910044616925056, 0.5969399046605777, 0.726290411330163, 0.13044237881284776, 0.7014287595837831, 0.6728752226485942, 0.908441050673263, 0.7515124173838418], [0.2217875046395074, 0.9933912813782687, 0.13710285230759003, 0.9967329465707991, 0.19603530979115608, 0.7602274062497468, 0.13281743966575382, 0.09488697308695858, 0.6322109819601878, 0.003332274475473492]]], "weights_ho": [[[-0.5066468684643323], [-0.5416130454077436], [-0.14662947571341953], [-0.010090324971981698], [-0.19199475190444654], [0.49163150799077826], [-0.22806940034303766], [-0.19647496085861554], [-0.4117790454942361], [0.6149074020793014]]], "bias_h": [[[0.8014794998164224, 0.8991838698633456, -0.14346546179928935, 0.4838448870104077, -0.01104888638700963, -0.8744272880642237, 0.5859533049395008, -0.07912718186903565, 0.5844513911073662, -1.250948722779935]]], "bias_o": [[[0.03144024082197439]]], "accuracy": [0.7554365567220623], "loss": [0.2445634432779377]}