{"algorithm": ["Backpropagation Neural Network"], "weights_ih": [[[0.7357462097930227, 0.24797357920977384, -0.2141318273632008, 0.4830373808420782, 0.528682427427357, 0.14791704593064983, 0.2266399830621368, 0.30846139816281426], [0.5118358085899176, 0.22692758604412816, 0.08332460912244616, 0.17942809805650523, 0.8107889363351742, 0.46494314563148115, 0.7315116421353138, 0.19020897089844688], [-0.25921292403689505, 0.340872287330028, -0.007752496589207362, -0.2208748200556951, -0.5479938586074253, 0.7070168907448721, -0.18121974143190644, 1.1324354909142549], [-0.2527598665129412, 0.8523279104326786, -0.1229966141213353, -0.09483853373266447, 0.733587646163785, 0.42804666095125443, -0.0839947916859477, 0.6606349878365868], [0.9557643612855244, 0.52063093238353, 0.6022449946071989, -0.028703139925845746, 0.1069775382473734, -0.03281159900083232, 0.37718542034401037, 0.5993110930987247], [0.41444468383741334, 0.6675332112073733, -0.002488055191590913, 0.5162022909283726, 0.7142830530180473, 0.5281341563805828, 0.9388414994011015, 0.810466051580639], [0.9153773436866613, 0.47335311218060383, 0.24835670034104196, 0.6422443377726912, 0.6848863213178988, 0.9092076358712042, 0.06534329338680046, 0.12747550544671868], [0.5599772740831123, 0.7014642074304732, 0.11525786249963468, 0.2751469333227231, 0.7345929939354024, 0.8740264025081841, 0.5386450707805345, 0.6099640961023454]]], "weights_ho": [[[0.5778040462655364], [-0.3475793917429637], [-0.032954012672533055], [0.02008206462406793], [0.3273395461627336], [-0.3063313021857389], [0.055182199736721435], [-0.7189793737624467]]], "bias_h": [[[-1.0568890997779379, 0.1728567675314053, 0.020120380485958413, -0.02588124694835001, -0.5495386858841448, 0.3007416697491285, -0.15625707458097457, 0.9597171798526606]]], "bias_o": [[[-0.757894353815194]]], "accuracy": [0.8301318739500068], "loss": [0.16986812604999324]}