{
    "algorithm": [
        "Backpropagation Neural Network"
    ],
    "weights_ih": [
        [
            [
                0.42161068185728606,
                -0.2747706994983203,
                0.09062944589834418,
                -0.442186833213199,
                -0.32928327116726674,
                -0.3329778753082719
            ],
            [
                0.5133042722207958,
                -0.3216503636886142,
                0.07135188515851182,
                -0.9764379091131993,
                -0.20445924114813457,
                -0.6885025348424897
            ],
            [
                -0.3539805680418209,
                0.8109925243533769,
                0.43872915255305195,
                0.08449900244319589,
                0.05632064154063811,
                0.2565172302934907
            ],
            [
                -0.22345785270515933,
                1.058667321735696,
                0.49048571986258294,
                0.2660009959653274,
                -0.5228875194240802,
                0.8214147485525897
            ],
            [
                1.7915496259286277,
                -0.27828696369748723,
                0.1104121062914635,
                -0.19007031412527112,
                0.1303894571849437,
                -0.2792595806696163
            ],
            [
                0.3262038829306757,
                0.9375878614368606,
                0.536648802430155,
                0.71965859342638,
                0.6864550060358517,
                0.4459435490681006
            ],
            [
                0.9274249750427852,
                0.9237382761408273,
                0.5218387533242739,
                0.631568906012446,
                0.22772597478608803,
                0.16003958413271735
            ],
            [
                0.25881716872808325,
                0.46335886879102145,
                0.8514004989579034,
                0.7576873952644934,
                0.9287726310444745,
                0.5912304669419244
            ]
        ]
    ],
    "weights_ho": [
        [
            [
                0.7812417281732766
            ],
            [
                -0.5665378194442027
            ],
            [
                -0.3626643208963202
            ],
            [
                -0.426231744602214
            ],
            [
                0.02682827975373242
            ],
            [
                -0.3819549367002112
            ]
        ]
    ],
    "bias_h": [
        [
            [
                -1.1380964390715786,
                0.5442561704758746,
                1.0884966942522554,
                0.4881810676137585,
                -0.3273708894397195,
                -0.17228245796674627
            ]
        ]
    ],
    "bias_o": [
        [
            [
                -0.8736727253086037
            ]
        ]
    ],
    "accuracy": [
        0.8800019396562172
    ],
    "loss": [
        0.1199980603437828
    ],
    "max_config": [
        666.0
    ],
    "min_config": [
        1.0
    ]
}